  -0.0016876701720258155 0.005128573140464259 -0.002114699783187909 -0.0029394774057895094 -0.0018278465496829083 -0.006147950382688903 0.0025425105175156475 0.0035510206770069095 -0.00043532400727998435 0.0005781748090481444 -0.0016657953780280987 -0.0028940277717450147 -0.0018296954473397316 -8.735637009510504e-05 0.00043456450548803627 -0.00047106492262139496 -0.001746548863024592 -0.004861204875958932 0.0030882106796410826 -0.0018755716678999518 -0.003909568817837665 -0.002431301057094563 0.003121961720598903 0.002686545341607856 0.0013871238842113162 -0.00046217418339049245 -0.0036734019132282254 0.006544819539144402 -0.002078889853195534 -0.007301340202243553 -0.005534254362526417 0.0020541079564454982 0.0019852163870488957 -0.0027600801491946343 8.187591516719762e-05 0.00617918225940833 0.0008185308862553258 -0.0012950787823592395 -0.002367347592146777 0.0004942927240581877 -0.00013608784689642757 -0.0009166521381167638 -0.000320004927247334 -0.0006784952277756023 -0.00575114196118058 -0.0030719461619033946 0.0005005793593026835 -0.0004395328443212725 -0.0010427684791559056 0.0005273997817079245 0.00030963712407133597 0.0036063882366525555 -7.598259233286225e-05 -0.0030208650153155025 0.0020565409374132954 0.0012854806554171377 -0.002839043341220313 -0.0026816403253194713 0.0024829809495072377 -0.0013120759533805616 -0.0008516562588651251 0.0002408285903457099 -0.00173588190973524 0.0030593175565400057 -0.0009127291516807839 -0.0032440934230596637 -0.0014309733621442004 0.004702053042695938 0.005302780733342773 0.002851818916821744 -0.0003782512570640573 -0.004584127094377887 -0.0032835650868589463 0.0011944069090925246 0.00033938574102018964 7.779087427846179e-05 0.002935902556443816 0.0019767330640969665 0.003818775561792872 0.001766088183662911 -0.003458584301103599 -0.0016358886875905844 -0.005452022222506978 0.002322481844586311 0.002915730550034255 -0.0011129894068284871 -0.000607931989204764 0.008056407227834688 -0.0011069788440759708 -0.0017063116913573072 -0.0011298117849501666 -0.0020682330056015583 -0.002192005883722311 -0.0029490885650525346 0.005372230842777206 0.0015274461648467582 0.002265834349693257 0.0021423038006278235 -0.002923895677376599 0.003808012943129403 0.003560373680041545 -0.002199947860108289 -0.002970732481728521 0.002737730108889021 -0.00040258847598412516 0.0001426121150409723 0.0015591989943772233 -0.002516893920243435 -0.0014774414043418809 -0.004419985399235007 0.0019379323429465794 0.003131058654809752 -0.000788487962504198 -5.8382814151954205e-05 0.009124045529523584 0.0019029638192470614 0.0006080871651323322 0.0014185996331808628 0.001541967853765221 -0.0015444662012847673 -0.0013205742226276896 0.004277189496049961 -1.0303225528753717e-05 0.005947242710906428 0.0036033445824463295 0.00044672729374388426 0.0038484867875109518 -0.004812135799029338 -0.005379081249921014 -0.0028072009134580693 0.005219329750854101 0.001900941384319146 -0.003647355313135335 -0.002498443029108978 0.0012027526776728894 0.0008609903157557772 -0.00016338803734501997 -0.0026438260936597954 -0.003984521788211806 0.0038125371229347244 0.00023315253684593563 0.001691408132691239 0.0031166971051577804 -0.0013792002736655296 0.0006626829790875806 0.0016216449156187763 -0.00037980752283330087 -0.001302787494199625 0.002997994339639474 -0.0008912602601418878 0.005857517853054172 0.002965218810582484 0.0006546057467657865 0.0026913247479083548 3.433047670292499e-05 -0.0010692972930646941 -0.00035073597252389835 0.0008215868061132917 0.002006276416653565 0.0062643207210220965 -0.0024938755168894366 -0.002564374069937779 0.003737658062901358 -0.002096288580754061 -0.0022070479994879193 -0.00041267299727674816 0.004344139076167303 -0.0012674586770869637 -0.001052865259217634 0.001369110021864503 -0.0009879715372262537 0.003022886694040608 -0.004266126139720385 -0.005151706632964113 -0.003023022995223139 0.005038144733547427 0.0012792360916026135 -0.004680279485534795 -0.0022171492803600276 0.0016467152665641698 0.0033946575301388726 0.0006214677114094922 -0.0007616318149713308 0.0011861643079031626 0.0003657412951748947 0.0018797409185368915 0.00666980407090485 -0.0025070807383709296 -0.002563540454056142 -2.0908803635201998e-05 -0.0018873107431800447 -0.0032070640804794763 0.0018982636850365911 0.0016631330893158386 -0.0006353549100316386 0.0018766999026303057 0.0015112623274243417 -0.005151175646096799 0.005313444334432395 -0.0013404626427693622 -0.0018151431339735063 -0.0024845075320353736 0.003239557690808512 0.0008409868197462856 0.0012630917879340293 0.0006176460122157138 0.002116670026156034 0.004666619469774053 -0.002115312198373296 -0.0031633849025702173 -0.0017029347732341658 0.0028244780247235037 -0.0016042347465379941 -0.0013904699170876164 0.001714380523057048 -0.00019409492968130358 5.885949305956177e-06 -0.0017015989830295006 -0.002554030935867934 0.003003571524744434 0.005858215133564176 0.0029923753562888125 0.0015953869989710442 0.00030085365371366904 -0.005094233183225169 -0.0010163869901931009 -0.0014405964658733153 -0.002803416260063854 0.007504118827702095 -0.0010721435281701062 -0.0016337875172715702 0.007250165399873767 0.0038017053089638314 0.005513976048604422 0.0019575177733015463 0.00023714861661712684 0.0015151108351234331 0.003104166721704937 0.008629806576155878 0.00725770987618003 0.00019746156862613263 -0.004270619062663096 -0.0046088352069065044 0.006487280732155407 -0.0015184917014633133 -0.00293809453192924 -0.005065028038780165 0.003019729039135041 0.0005439189644835974 0.000266036137928307 0.0008274200244939223 0.0043826192141055275 0.00477974059215697 -0.0018992001347426987 -0.0066098995220682435 -0.004800503025924476 -7.528322567939155e-05 -2.496036645236056e-05 -0.0024816172201999136 -0.00029635867640270233 0.006245269533269425 0.0019705794119674134 -0.0006988736661982019 -0.0023326177883438623 -0.0015599014797979525 0.0024119036040531477 0.0025906981587533536 0.0018920013360171888 0.00013678511807028293 -0.00426708087364867 0.0019428170136110872 -5.298211257337236e-05 0.0013556041809784241 0.0032807324066716696 0.004418497786505367 0.0055924457813699615 0.0024257130004873206 0.0020628119044972747 0.00020117312222047513 0.003643679393445414 0.0019154384616789288 -0.0007744929789861108 0.004108601445856735 0.0004730362518265654 -0.0011502321263747318 -0.003097724940980477 0.0026329803663196526 0.0015103592905881566 0.0010922811066702422 -0.0007944139296648204 -0.00042284643282622494 0.0001964226110050688 -0.0004888430876835635 -0.0015097224435661083 0.004572403644814093 0.00364586611829458 -0.002985122536683858 0.00357334129006918 0.0036831396652246815 -0.00043558509724074155 4.33607606648225e-05 -0.0024701735595152536 -0.005294159706942564 0.0026552847935303603 0.003362781000175864 0.0005798506112004286 0.0068921478872002355 0.0014238776201985484 0.0007307467447065859 0.0006598775121385269 0.0008710799476641555 0.0046708476902786525 0.008065680713126073 0.004881686160041538 -6.0198165969446454e-05 0.0018283292642229142 -0.0004939728386454623 0.0025794147513340244 0.004402353738453643 0.0007209871077883984 0.0011547723221903038 0.0035030563066630153 0.0039523344896668314 0.0025080217157408134 0.00684028733773707 0.007562733862835272 0.002079931658136408 0.0006634870445457789 0.0008558089977469653 -0.0017287062093241873 0.0028301101443609132 0.004310776933726167 0.0013296828419559475 -0.002024937450804703 -0.0017959180842371941 0.0018881982064761626 0.00018985226286537653 -0.00022271503715423998 -0.0037865304108009074 0.004081077791220927 0.005858934149386239 -0.0025075191643284334 0.004500962325678175 -0.0024407109830638404 0.0027099271110255204 0.003994771216050311 -0.0002427232571691971 0.0040344562362659335 0.0002702513363516611 -0.00010331045603759995 0.002499601800890519 0.008659170083039488 0.0047818742356696775 0.002657940281577632 0.002089932784599635 0.005509061733878266 0.00803424212791627 0.00874730719975341 0.005032807748053309 0.0009069086566286375 0.001077569407888072 -0.00038567685166758205 0.002624486019468932 -0.00032463109190098853 0.001634646997759977 -0.0006006923621713223 0.0021883364848664898 0.004043760733656242 -0.0023140723326687688 0.0045581047611343165 -0.0033685642830294997 -0.004043896703555569 -0.00321836454528632 0.005599238442217088 0.0008629704888034584 0.0004220361442341432 0.0014366798387830512 0.0038084796073928444 0.0024413726068007193 0.002708820052564332 0.0015641897873117192 -0.0012655757503075799 -0.0010705401563322029 -0.00012617781993132663 0.0009553715076356468 0.0007617702438885201 -0.00022552843998314902 0.00687188017681433 0.0008110711234902678 0.0009418395062255768 0.00402981801225823 0.0037324282163908405 0.006837480906870967 0.0022082890925429898 0.0007878795741333176 0.003024823916419128 0.003828736108341683 -0.0026523679880120976 -0.002949720642068713 -0.0023004112522120794 0.0045244768931734635 0.0011589580544280349 -0.00036359791180282677 -0.0008310774559066776 0.0026274452138575124 0.0029596678489725277 -0.0024829800529697953 -0.0011805671335090573 -0.00019629392619708485 0.0005084522172822944 -0.0025406958944138858 0.002037763563373496 0.002577745689207084 -0.0029007613865399597 0.004069188168404403 0.0016450383500716441 -0.0029580962805249595 -0.0011788874280653063 -0.0020235562820423566 0.0007267825797472046 0.0038963258657938988 0.0038090948351388676 -0.0009458638618202507 0.0045661567760592135 0.005290983561402997 0.0038057258820036848 3.1953156374908326e-05 0.0011079544084381665 0.004423666356727224 0.0019941220518753474 0.004023984899381512 0.0016862137482198016 0.0019485038520097892 -0.0031105302972181657 -0.001836712802518937 0.001884359484119709 0.002982621831856377 -0.0005493449521964068 0.002686609855292453 0.003894619211961487 -0.0007204369008128311 0.0032615151253142702 -0.0025727551888659493 -0.0008167068507956577 0.0018695031012127246 0.002941092790628036 0.0019102072169071107 0.004446746179746202 0.001943171431870114 -0.0013074035253081715 0.005062957060004645 -0.002432340122932982 -0.0028047247027191222 -0.0008646036188505724 0.006400702539623194 0.0042975933099603045 0.0030647110589841937 0.0008547938406720275 -4.615549289926225e-06 0.0036931832314597334 0.0012851407495303741 -0.0014099020332868353 0.0007998814628844044 -0.0002615035587197773 0.002153183988129475 0.0052061013318224275 0.005657059137330115 0.0006246106591160018 0.004670899051992392 -0.0022928645374994685 -0.0016358634306704646 -0.0034622541844299974 0.0023922537669984335 0.00016160042700440633 -0.00042205912536278864 -0.0004564617335848971 0.0017316828299484787 0.0019984000359875576 -0.0009211973949255062 -0.00017089381786728183 0.0021558820766641746 0.004390438070626309 0.0027581825242224503 -0.0018545887737793042 -0.005083223558502547 -0.005335906990365205 0.0023519863517135965 -0.0038094357511586747 -0.0015469915621629652 0.008504949658512409 0.0018977640501586148 -0.0020430171101521112 0.0031897566414022605 0.0035706974748165644 0.0035178222613438184 0.007286211827807016 0.0005116694463410084 -0.005004708192129189 -0.0036324634271135666 0.005682558024642461 0.003455061208434738 0.000554327487233925 0.0007811758664318225 0.004790047241314805 0.0026032503761329096 0.0016566928692194902 -0.002231572331531087 0.0021202533487479974 0.0008981911076329383 -0.001233982834639837 -0.005574818867422041 -5.036004712097854e-05 -0.001763984947151508 0.001598801696098945 -0.0003968771410923985 0.00010056164588815528 0.0015508358024769221 0.0035082092593284324 0.004422418724407209 -0.0010039566047436923 -7.164756489517522e-05 -0.00029479889634918924 0.008634213135536752 0.00255701807069608 -0.0016562761238829145 0.006985746803593362 0.0012293653513254668 0.005947582120526472 -0.0019362257256997028 -0.0009159932092586503 0.0032182138182272613 -0.0025997808608580527 0.00028115754269741444 -0.0006430617740055541 0.0027900932656322896 -0.00602514385754259 -0.003920173070911477 0.004624109389771246 -0.0008481996013804858 -0.0052797923449437525 -0.0005973478284313783 -0.0024025944322303154 -0.0017053364416049386 0.000785369135839713 0.001144198635185936 0.001318489702024105 -0.0008313890626066958 -0.0002485699303092368 -0.0009629590577803133 0.003842963080706891 -0.0013091164764828548 -0.002092531811465637 -0.0017210590789522068 0.0002749769513432089 0.004136427222693833 0.004060233645431836 -0.00041116003441961103 -0.004503713081579177 0.00041801498194637493 -0.0023243055125804785 0.002359243462823545 0.0018601723733587458 -0.0010952038185535432 -0.0062028782706969755 -0.0019204375212321762 0.0033015809843337687 0.004447528938483192 0.004813452396254464 0.00019693535578310848 -0.005111753589610209 0.0038762666247062374 -0.005502419717641364 -0.0002424498214661011 -0.0018446017378270087 -0.0025906848238220837 1.5345960266529164e-06 0.004441246153121092 0.001549910286134592 -0.0005473441338778964 -0.0012553129804780201 0.0036300734033984814 0.0070745486201090405 0.0028129781811266318 -0.0011218602955736276 -0.003992466097080168 0.0013186984618313168 -0.005721479363338634 -0.001948062583564071 -0.001133097823442323 0.0029193656123643287 0.005139650181737072 -0.0009988571181931507 -0.0020721633538381343 -0.0002608864117375608 -0.0013424360226925382 -0.0018272370708864781 0.005909702790480642 0.0034436177743575277 -0.003776238910257391 -0.008016892161823231 0.0012850331056292312 0.0006962736509925748 -0.00102965905041717 0.0034728690875316715 0.0015462298903159443 0.0027405018267264137 0.0032388247872643505 0.0009001077626616382 -0.0036390097097643076 0.001646652460337629 0.005176536659483481 0.005178122469562005 0.0034802257452614233 -0.0044290571016990885 -0.0037670894633414936 -0.0023618260793433635 0.004903576978611093 0.005247379336392139 -0.0033827974986408464 -0.0051779176927309834 -0.0014598454326673234 0.0025700689242085153 0.0006972759609175461 -0.0011461734625577045 -0.004798977328035028 -0.0014748001127224747 -0.0002843778245052064 -0.002304977048072069 0.0036927272513269534 -0.0017574068020523395 -0.0024482286457246194 -0.004351591446960549 -0.0007184899484915401 -0.004570729851481163 0.0010328012445951094 0.0037269599441811917 0.0029227741012614913 0.00525718349315269 0.0021755427592851273 0.0003305841156759063 -0.001218610315790013 0.0023825872704589146 0.003183884973276678 -0.001596787517911722 -0.006625468318894837 0.001191569501999956 0.0007933546888184946 0.0006712375441276072 0.003056846690354128 0.0028864977000409926 0.0010327752478681677 -0.0014121761934623057 -0.00039682835674072865 0.0006650044369435275 -0.0017544539131737486 -0.00020670357400077405 -0.0008322053197453734 0.00561622078641892 0.0016041623366818412 -0.004098804544248102 -0.00338317156702744 -0.0015071928597623213 -0.000978771707927368 -0.002167709322051785 -8.214426553720284e-05 -0.00023160809973841266 -0.004266903677548615 -0.003285979782636708 -0.0016533330876797485 0.00345833058638244 0.002543962980296822 0.004113286749327698 0.006315875691253246 -0.0003289004551930924 -0.01106933749674135 -0.000938614118887979 -0.0030020540832293675 -0.0010390782450745283 -0.0048822064356734 -0.0012506031532309705 0.0008048917139563168 -4.125206380368407e-05 0.004486414068850866 0.004694516637375408 0.0053296588956687225 0.0015099619516688535 -0.0017196333829782588 -0.0020954096178544897 -0.002870715474564044 -0.0012989892650944873 0.0008547686138574057 0.0032811682027997636 0.0004843068625408872 0.004936739264211207 -0.0006973563024836415 -0.007019565804548258 -0.002820582191014473 0.0031835372611364954 -0.00038624991681061085 -0.001369646799035156 -0.002104619991305179 -0.0015140980863934403 -0.003089837323641779 -0.006047952332184254 0.0018634064129061144 0.006898747718159031 0.0011374926853713492 -0.0017469689325942481 0.0034142572109313526 0.0006533179978468472 -0.0039651951976553005 -0.001801551191985894 -0.0009279819975172092 -0.00031377015604186395 0.0021848990527960814 0.003475177233216326 0.006989037659508774 0.009977621954860641 0.0023737949709828374 -0.007012614311554297 0.007963588608268334 0.0007299132858694294 -0.0048746814788426795 -0.002587054384420617 0.005311331628308811 0.0012227495235445224 -0.0016291476905496744 -0.002079233864612707 0.002746634333929219 0.0010043047170982436 -0.005558383479833311 -0.0029266404320865496 0.008151247998146337 0.0014232136894950208 -0.0031232809479025837 0.0021443781054639134 0.002975668928390617 0.002747834859913286 0.0015984022832219878 0.005027418223081184 0.007721010815356141 0.0027089383721662463 -0.0035489165675076065 -0.0030946138690224265 -0.00033923099477400296 0.004792799181091815 -0.0016044994792834538 -0.0012942776162047668 -0.0026275936199636946 0.004156037808623955 0.007028909024126812 0.005482005227524533 0.004159039715602272 0.004062377710199293 0.0014023283340338908 -0.00097700078275327 -0.0005814343714413308 0.00040439695238587736 -0.0016212073733218506 0.0016923326657641805 -0.005449406280110325 -0.0038916314802278774 0.003894321516566329 -9.491859544302247e-05 -0.003957005897430295 0.006824400255988236 0.00046673752962282785 -0.004377908377229864 0.004050911967079163 -0.0001045431655942923 0.0036966037819760886 -0.004301010230014278 -0.00422822392007629 0.0001806659328085381 0.0033047505701416942 -0.005321657750066089 -0.003924778519958301 -0.005806032108088019 0.0027896362175560195 0.004489278040211389 0.0008294475570482572 -0.004819962589396728 0.0002608065446987232 -0.006427534280153125 0.0011167217024335382 0.008314754194065625 0.00458417969837592 0.0010216562420997557 0.0007666998342320445 -0.0026934858093963228 0.004195001138717671 0.0075531356591284635 0.0035442675097944803 8.658127966045128e-05 -0.004639573488565248 0.004215826808582277 -0.0016846921122716236 0.0011574073051514775 -0.003320275024893406 -0.005434441674252229 -0.002227450303736164 0.0006159234858412092 -0.0014005688136318605 0.00364762581539007 0.0022627726125026507 0.0018576587351757565 -0.0027029634787278283 -0.00294534446108999 0.0032187499601591387 0.004304798341709181 -0.0016888568368275368 -0.00045555996814006363 0.004589189099915514 0.0005113315986583166 0.004992988236079565 0.0010384314753904068 0.0007918288579229686 0.002700155471175071 -0.010589947391827049 -0.0019358652777220298 -0.005604964219941595 -0.0031160998518409417 -0.005010758439122739 0.0016974703434320829 0.001833365086021531 -0.0022342040385386723 -0.009979466793454102 -0.004684648206609742 0.0025026761671589413 0.00021786944295726937 0.0023741975660499914 0.00015676977863284756 0.0011853547966689543 -0.003001730352154496 -0.002209503765529163 0.0033524775104128096 0.004655050943378312 -0.002386041608478594 -0.0043473364641662135 0.0018520454222473626 0.0008489625325815958 -0.0015726306424429393 -0.006275370814208384 -0.0021161000975080196 -0.0011744057218709275 -0.0030405266688287246 -0.0033928023368540888 -0.00359108076963588 0.004741866778292469 0.002780815955728963 0.0034073954652275094 0.0026966048429636056 0.00010543016463219858 0.0015761882980276567 -0.004049040044986663 0.0012690313448745492 0.0018519819901882215 0.005720042254421867 0.0014893646575122957 0.0030620018579066996 0.00031124842191018065 0.001996759621033806 0.0025330399463225047 -0.008078608071244588 -0.00021919430276482753 -0.0022129620690886343 0.0023771485902603848 -0.0005165379587731798 -0.0001943411906587179 -0.005074297659244521 -0.0043581230944966225 -0.003915348523189933 -0.0014307133712106023 -0.00129694233154662 -0.0022254757519278153 0.000577722873415052 -0.0039829585212662905 0.0015182895280029334 0.0033443775239165243 -0.00028986876268156654 0.0030738485196071283 0.002749947558919089 -0.004394748003677294 0.0003224273093888677 0.005440223640760027 0.0006530547770857149 -0.0037568857145204547 -0.001698918777932722 -0.0016285282616176563 0.0042349473243818905 -0.0015910835764554052 -0.0012839476289093427 -0.0003452925479444884 0.004522828028271926 0.0018759403069801134 0.004492720695011131 0.0031223335137087467 0.00019380630226129063 0.0013154473512009303 -0.002989021373127984 -0.000631690480976279 -0.0009178694379390805 0.002613230654597942 -0.0027663726116872703 0.0020288340478444287 0.0035748462659511253 -0.0015384891092647798 0.0035486105941038375 0.004388219996147333 -0.0007450284097053233 -0.0005083098672843598 -0.0022238392160770495 -0.00036251898351492753 0.002526245552310178 0.004913500824505415 0.005669949902809325 0.0009278334510081028 -0.006123353639509557 0.0048702966522285816 0.002704365379930992 -0.0009830482137951348 0.0061433841374678305 -0.00027013283066359457 0.0014607159717510468 0.0020681709119037073 0.001963315293685248 0.007204350886790535 -0.0030877940541516173 -2.6201551706390878e-05 0.004447939311387361 -0.0006183616561025718 -0.0008064281433572886 -5.529983286900989e-05 -0.003508416046117166 0.004248512462532634 0.0015766623969567912 -0.0005973763499007059 -0.0013372471895674585 -0.0008785837032429575 0.00011801061878554574 0.002378613462039378 0.004308940856186475 0.004575011261243529 0.0006458795490391241 -0.004964101858136059 -0.0001454192949641464 -0.003958863852263064 0.0009526057820984584 0.0026789771088541517 0.0009813374066615593 -0.0026333950261174274 -0.0011511654669655233 -0.004391314093884106 -0.004520693877824564 0.00616441075247069 0.011706218253034696 0.006920107186030008 0.0047807273851969015 0.0021109921073706327 -0.0020667642305151972 0.0013783531173605006 0.00117481708388799 0.003307565000811821 0.0022681889264185894 0.002085141904094672 -0.000261925494854542 0.006267127963909138 0.00032001880664240737 0.0025349883606988915 0.003823456147091583 0.005209321077105808 0.009801466002283288 -0.0006099791840682016 -0.002961828290077001 0.003639583581550347 0.006085071107200487 0.00524971686147949 0.0031034559960605636 0.0019227518968604072 -0.002933213314574509 -0.00355279550654177 -0.0020511628145125525 0.0013610947884717705 0.004083940170182614 -0.0007313781237205373 -0.0035940416819138367 -0.0044502500714409835 -0.0036405156478077844 0.0024794378223593426 -0.004261069694730033 0.0018864620188071444 -0.003617635749643444 -0.0021693290977235257 -0.0014645685562027708 0.0008657438938531607 0.002454263749076748 -0.0005032956443679817 0.0009251142919404246 0.0016643977815845238 0.007533109799542254 0.012342186864811202 0.007907104779757385 0.008519531985119289 0.007502256285454851 0.0025021229111440585 0.005109756311275504 0.005050766603296874 0.0060874627516374165 -0.005437746858996397 0.0006296520568977143 0.008690639875856323 0.004921866246481297 0.0011166695297226514 0.0009112297830029244 -0.0032518426443868794 0.004013293613235248 0.0070133442114200095 0.004501320937361067 -0.005870589647834565 -0.0048722064390955225 -0.006888899578670391 0.0013287212364989519 0.003577878920652874 0.0004381663153130778 -0.004363160681005116 0.0009266233276213499 0.0018772888303782646 0.0017780194389575277 0.0004134946757920013 -0.00043331885803812577 -0.003179677771329077 -0.0016397865476744172 0.0002871234177093073 0.0010068248166899088 -0.0032424126018188587 -0.0010645614548710056 0.0054432846384457065 0.002303047474502605 -0.0007677434387364155 -0.0019382931231381436 0.0006981828622988237 0.003629737128295185 0.002041665100227221 0.006307600119125162 0.001187695081159075 -0.005326272152195081 -0.00394162203207365 -0.005200812830762331 0.0008107676247615921 0.0019030981463093045 -0.001924130784271549 -0.008411551199377724 -0.0027987642191237773 0.0006581314262785442 0.0014151642091114803 0.005904687860781206 0.001780074790654228 0.001094400646505356 -0.002377229441138391 0.0008742108217299977 0.0033254350568883723 -0.007417816826263982 0.0014535695681368482 0.002303938191067127 0.00013073294227151168 0.00027682088580684194 -0.00031231657698886845 -0.0038299558544670235 -0.0019903298227632697 0.00250727153620656 0.0028155445566894577 0.00023948970042592 0.0004187019658071748 -0.0006742842798144493 -0.001751517064052398 -0.004237778209215394 -0.002848120834227073 0.00018701627355782854 -0.002780266081683087 -0.005263317886375937 0.0019341002020912673 0.0020029803649978055 0.007079270050011222 0.0019983587000768467 -3.234949623980679e-05 -0.0045256061488642835 -0.0008479462586784988 0.0020155421807119007 -0.006614935956341492 -0.0037266245252223357 -0.004038741644164797 0.002944470510118748 0.0012970355504546406 -0.0006747825254207236 -0.0016095284616294311 -0.0021220759031423276 -0.0009260354673253338 -0.007088872992834827 -0.0019419914818370977 0.003181281399089248 -0.0004515659609902348 -0.0009403758583238616 -0.002205813928492828 0.00017764064052844383 0.005151782540343545 0.004992092601717637 -0.002842415440278826 0.000498415950771843 0.0018115515220975915 -0.0016143612555030954 0.0005586432158543407 -0.0021377969959644736 -0.005850300784563401 -0.005210194471197574 -0.0007130380685071233 -0.00022814156015890175 -0.002630193486415396 -0.002670786712009185 0.003102700825736613 0.00012723942183227033 0.0008206814258643084 0.0015952240023871839 -0.0011612022206424846 -8.825357016354131e-05 -0.005953181555111011 -0.002048328775975646 -0.0008210578348755338 0.004820436816665813 0.0004615343817146484 -0.0037837157168584493 -0.0013158081163566163 -0.005490591145460035 0.000761788626770766 -0.0010634770630611084 -0.006846620783411523 0.0030613445282047275 0.0059651812529797335 -0.005338972189193571 -0.00619088522781524 0.004215645346636349 0.0076495578649880686 0.008897187559087465 -0.0018807746206317847 -0.0012802593381207403 0.0023179801828821737 -0.002192749792476491 -0.0014614663015804891 0.00044994280660058916 0.0021413140512524078 0.002824236199275445 0.005231805651016948 -0.0034608956032989137 -0.003250647715814695 -0.0013170530752086998 0.004194755379995638 0.0013392846093974334 -0.0002189661108790386 0.0013792940830567773 -0.005090900377680977 0.002397277673004643 -0.0003233321412559414 0.0027199772928271112 0.00012291082395978 -0.001535078293377995 0.006284039607231073 -0.0005305504883359501 0.0015450303587070762 0.0014691667631494079 0.0018206772880770875 0.006239305963575607 -0.0071883852604836904 0.0025700039923627913 0.011578669071981284 0.002672036717312887 -0.0017048304289043166 0.004025920513133451 0.00735612687536697 0.012132999577799322 -0.0042187598110692125 -0.006074581494314006 0.002806790314187919 0.004949288136931313 -0.005845623041774483 -0.004093243762867663 0.004204364126140959 0.007829931386073291 0.010361151847084128 0.00017975753968792223 0.0019437877523717662 0.00219767661950476 -0.0008178345371683564 0.005834745025276698 -0.0016918693156190395 0.0009580471668093254 0.0021332216299752575 0.00277274089113544 0.008955680695046623 0.0039321742000212045 0.010576910078918879 0.005727003185514933 0.004269714938285246 0.001953956674311277 -0.0027477119717211414 0.0008761783331798784 0.0009838183276099474 0.0008560750903297292 -0.004858829072515593 -0.00250042566837491 0.014994944456643948 0.01356436790088396 0.0017904451259515527 -0.006894353458877315 -0.004349974016072358 0.004020550253853138 0.0007600785771573051 -0.007543648436426811 0.002190167233315064 0.00970250901272913 0.0034247473388015776 -0.0027326429470109328 0.00289554188848653 0.0092469211398185 0.01341541707959971 -0.004638527896931409 0.005989044940971781 0.01136398066720278 0.007575836426926033 0.007784185892463421 0.0052305194004430445 0.00016622539610467436 0.004332618548600187 0.004300725890030648 0.0037462110431267736 0.00011119119037822474 -0.005213696798063986 -0.004633764168158536 -0.004521657850308866 0.00012204500385913162 0.0014451084289254475 -0.00241058302721062 -0.0007973121107175854 -0.0009594356428642017 -0.00900909330022109 0.0038189879514882565 0.010644908380068553 0.00942197719684983 -0.0001728478424203053 0.0009756979851412689 0.0028702850590436387 0.004933553376880786 0.0032458227979083724 -0.0018934231859432061 0.0007666032047510432 0.015802225895840898 0.013438509150380641 0.00484765679688614 -0.003042566980557566 -0.0012348861177210709 0.0067683858729798005 0.005106851285795179 0.0006970032902282576 0.004325037676609368 0.003099182928222168 -0.0006770070669902295 -0.002241068308229296 -0.0007325652297413452 -0.0007601993500346378 7.282114287110476e-05 0.005295119334469576 0.0036797381127347457 0.0014772698498436315 -0.00029014850609049606 -0.0008640008291637629 -0.0038485116274964474 -0.003530608993062389 -0.0006042426952863606 0.001754102412211759 -0.0009616117217640448 -0.0037468447306119694 -0.0015150474440103888 0.0036144140087075362 -2.6927384240049922e-05 -0.0018298681859537872 0.0023299765702162545 0.00014675051348205485 -0.0013353185150031116 0.001954053263164103 -0.0025534164740402075 0.006470450722283818 0.0010448492539814856 0.003433968804924715 2.8661094759131865e-05 -0.00027379524821332524 0.00472744245239021 0.00473048980297059 0.0015838732392741686 0.00342162747236188 -0.0009900358464446592 -0.0027278721709159534 -0.0030575149959302323 -0.004432858691283548 -0.003504155411695819 0.0010563194252005718 -0.0013819781152999957 -0.0007337613564247178 0.0037664659227461253 0.0035008777572580027 -0.0007926329484982481 -0.0023174945920209395 -0.0011869725132957983 -0.0038106937760727035 -0.0023851805737167527 0.004366008943749198 0.0037418905166909937 -0.0030534988314440304 -0.0005372928394321182 0.0019102798498856679 0.00043638798141157657 -0.0005167270797501487 -0.0024319580783698637 0.0010198430850931867 0.004832720185818556 0.0015293360985583892 -0.003929294563327329 -0.0028287456945004378 0.00032341081052305714 -0.0012841893368142937 -0.003959100569298584 0.0005439217707990907 0.000713193201175736 -0.0016744890232836354 -0.00030118750323766407 0.00325392250517278 0.0029646322978094004 -0.0027279549247789187 -0.002886821367892323 -0.0028920941746009127 -0.005710314815414259 -0.005340908622096534 0.0012190762560492343 0.0013916277596076273 0.00012643740832881019 0.004445607107540103 0.00027598376118379453 -0.0013874896621294689 -0.002954321648935602 0.0007355333006191108 0.004815276354600686 0.005770305594259632 -0.0005457677319256708 -0.0032954969685609395 -0.0017138612659696258 0.002124906282262327 8.654013067781302e-05 0.0031248298158206064 -0.0015414033921904552 -0.005453357117722652 0.0038412817266369453 0.0034222562144047546 -0.004931018335882611 -0.0014005246318500469 -0.0016948288527599768 -0.0009840155874918462 -0.0012336620634558514 -0.0035736894138662717 -0.0013361558389358174 0.0019160205215344047 -0.0010095426792704175 0.0007785031112165587 0.002310118856868083 -0.003526749413210081 -0.005915483314244187 -0.004262710365740762 -0.0005756054351078797 -0.0009428420849088359 0.0026250184072427944 -0.0026627153565995394 -0.005197671336324737 0.0021858373448726473 0.002552974137979323 -0.011064687059405234 -0.009916001679545764 0.0011106582801513323 0.006729695628632295 0.008679556529328654 0.00034924894029322493 -0.0024314172356291732 -0.0016812799939452585 -0.006493942344538002 -0.00955499360759106 -0.0032722018119409812 -0.0028231175536029404 0.0011749899515703054 0.012981865907533065 0.006378522927408701 -0.006083946841525263 -0.00399712842272445 -0.0015263247800059662 -0.0046827472017838025 0.00021130841942155825 -0.0029391504561944596 -0.006130027590016231 0.0037043968909757125 0.0015005324888345923 -0.004523562842697946 0.0015228235333048 0.003782563405392014 -0.00929833985067272 -0.006784592032676741 0.0029395658964260275 0.005661335354053403 0.007526509480877048 0.00027294533941332836 -0.005079971094627972 0.0017630450610115508 0.009794110722163976 -0.0015800676985952557 -0.005639918031921427 0.000973541080331346 0.0061188814385535134 0.01339825761437212 -0.0025955661317717173 -0.006572708929808369 -0.0012933007283946912 0.0026033968467620134 0.0016820582098761524 -0.00381913928745464 -0.004164373422398439 -0.005382325305369122 0.0020811006212479934 0.001036135368103693 -0.004228807584070724 -0.0027837366755562062 -0.003327605811909944 -0.006860457571692654 -0.0014136605245889165 -0.0026235002364456304 0.00012114868870464586 0.012799386014374277 0.004818375037327382 -0.008532588707099031 0.0010894910703477493 0.01178834577478908 0.0027628516392313204 -0.0035274495989569177 0.0029253037847894845 0.009207876000873466 0.013932308200778693 -0.004387236263306569 -0.00399920633762936 -0.002513883463622853 0.013373952691405691 0.012249414746315915 0.0010541573795566396 -0.006623849806727598 -0.0030539874317083685 0.00308179319773059 -0.0002833903738694687 -0.008637271027478313 -0.0029157836985690315 0.0022009403422539476 -0.0038568019244712196 -0.004743246762647117 -0.005100818528507969 -0.0029078386320592997 0.0029971775804438984 -0.0062533008217391245 -0.007513277779060845 -0.0029939595615363873 0.001978351871464512 0.0025002940364777745 -0.0023699766889375205 -0.0032410817084775403 -0.003195783219869978 0.0011650612095310642 -0.0009503215790634317 -0.002597290549172448 -5.603682073551249e-05 0.014493825769611826 0.012918373396960727 0.0025129485544645694 -0.004071569204642665 -0.003227120262675175 0.0044228923609772345 0.003039509006106373 -0.008787966797391316 0.0030000575952071826 0.009068826054875995 0.007916017361607516 -0.0018408204873319512 -0.0005671233599710999 -0.00024810853563906455 0.003927991079613649 0.0027771254014999683 -0.00044936728461907115 0.00884899486584053 0.012502662463890353 0.007871088905390154 -0.000845857905195373 -0.00013954287721289319 0.004115461719264796 -0.0024671746525623426 -0.00669777505876928 -0.003826721741135023 0.0017855033620153703 0.0027334904050699653 -0.003790896402020879 -0.004966843373733465 -0.0043724435651799325 -0.0005146630864402764 0.006927458884997096 -0.0009655991281977819 -0.0003844495512250528 0.006531473495151133 0.0019637275044241216 0.005017851813448869 0.0006475998646091162 6.441547023466085e-05 0.00586062915561288 0.005886986361902077 0.0003397281885542941 -0.0026333643662278627 -0.0006689884318488823 0.003917253736489311 0.0005166180965116922 -0.0013412071790578689 0.0031472588617445117 0.0016315300050202017 0.0005631637070253821 0.002157884490898164 0.0001682005397234181 0.0022015298205914895 -0.0002808539364953041 -0.0026037371458129174 0.0016829449545564452 0.0007010383341556267 -0.0017643485392218952 -0.001245861878445608 0.00014824123905938822 -0.004498821068332049 0.0002133847783304604 0.00011538493579672028 -0.00044713017618872047 4.153555351156779e-05 0.001046480786816532 -0.003092798339839889 0.006935716120952897 0.0009853239275982172 -0.0017126810019599506 -0.001978850684310701 0.004228422045030488 0.0017049203742820845 -0.0020320153233321834 0.0024500012706309164 -0.0004234575051430337 -0.002194899935792817 0.0007059781446085132 6.177102428596525e-05 0.00011219511016580677 0.003756789816845611 0.0024813884257846087 8.113792728476879e-05 -0.0019972366382007044 -0.0008601904004280399 0.00269528112458677 0.0037011014727892037 -0.0018557935280682537 0.001573513159582218 -0.0013232879792365898 -0.0002235352917189441 0.0020937808341160748 -0.0002621540349003769 -0.0029582582214086367 -0.005225232538729813 -0.004193855123382191 0.0014078742961929278 0.001931140246412991 -6.674984479595312e-05 -0.0005558789781885836 0.0008003268184941102 -0.0004083771467638745 -0.000582663127726798 -0.0037021804937717047 -0.0013894624014595205 -0.0027255897150538716 -0.00030148485272804776 0.0027618720413696077 0.0019052178591975146 -0.0008595127730139433 -0.0029779092651151043 -0.0003589044846713847 0.004559414536850144 0.0003776905987820505 -0.002389603340198819 -0.0023956197210816947 0.0009134536692447437 -0.0001779898830994448 0.00259495831414987 -0.0026483126265312 -0.004610184005807712 0.005207020645407212 0.005526796949829205 -0.0004528131145850106 0.0003871642146137964 0.001686864541666098 0.003262670302372628 -0.0005569114811345321 -0.005200612340559713 -0.005339441067221733 0.0009159612905716827 0.0037392192373591512 -0.003930696760367109 0.0003259713574887485 -0.004565585733531961 -0.001599209027761403 0.0012760108348936305 0.0003549907954341704 -0.002518810021736389 -0.0043284736346835325 -0.003880567953243478 -0.0039223893574225795 -0.002172784586718142 0.0012043606825543457 -0.0037223682369756177 0.001499167173441514 -0.003347166106496935 -0.005841644184795942 0.00492207849890644 0.005085674036290907 -0.0025851545346625617 -0.0019200972144170555 -0.006068832110258735 -0.006421055125389459 -0.0015280393180894115 -0.0011517810180849532 0.003060844305642229 0.014705870653586387 0.006462810378959131 -0.001633819958568566 0.00015645078161853084 0.0026812409009027535 -1.9348758346384785e-05 -0.007235560876718422 -0.002821036566846405 -0.004329684765149321 -0.002003121202782126 0.004466709134389029 -0.003919813088404889 -0.0014277512451260361 0.0003913613098989429 0.00027914713927724603 -0.0004619052878258613 -0.004092729708401981 -0.006621789577086655 0.003098406499973425 0.003560883976989018 -0.0032909392260992926 -0.00255648294171935 -0.0018142491206101054 -0.004319321195466638 0.00010853802578101291 -0.0009122029698440517 0.0017702033582433635 0.01297707245142422 0.005744947408636514 -0.00474664168624457 0.0002702199510354392 0.003587766612904565 0.0013052953115072507 -0.00240724296190228 -0.0027828772636747903 -0.004167407728560117 0.0014305097551335958 0.0021783902592257686 -0.00455516013917344 -0.003693798719873866 -0.0036240244731866487 -0.005267256989502544 -0.002993641976225003 -0.004371334578778364 -0.0025667906504429484 -0.006075878276787797 -0.0005825472600290546 -0.0009987916667005112 0.0011027815153797083 0.0035377939743510096 0.001550069189417401 -0.005336100790221486 -0.0014176798951355647 -0.004577644510101654 -0.002361385729508344 0.004567848249221258 -0.0045568609438248675 -3.328979134592376e-05 0.004284058211264054 0.004680572643034896 0.0003863770330195291 -7.216231023724893e-05 -0.0007856198743297118 0.003412641017230457 0.0037305678793425417 -0.006466135417651512 -0.0014387864011209384 0.005440774402745933 -0.0008022677112186878 -0.0019520130618966237 -0.004568466257988217 -0.000751784619646895 0.004433304942697163 -0.0022580391458897685 -0.0030453145629445867 0.0024093940667489306 -0.0014073803560604988 -0.004249002508843396 -0.0016584040138878065 -0.0024721943053677814 -0.001918493115147532 -0.0010302848700513279 0.0008675236561390403 -0.0016362544961888944 0.0006075884214071101 -0.003405615836811208 -0.004353072946115838 -0.005414044027234149 -0.005517768332521199 -0.001148239636285694 -0.0035090561467815964 0.0016625191586075064 -0.004492470509602592 0.0013626857780241314 0.0036524312427340545 -0.004179039255900212 -0.006480349113519663 -0.0061534121547473465 -0.0035578617693402983 0.004135929583586949 -0.001693205250689593 0.0009903179516160972 0.008896513509300374 0.01228261778736759 0.0060870505609572296 -0.001016829065546162 -0.0011139055148246943 0.0035353308728038294 -0.001670114190797029 -0.0047096666561034315 -0.007739869494564194 0.0007007838320397435 0.0038681902282875647 -0.00281619721788384 -0.005434728191487929 -0.006572070298974391 0.001087524934647088 0.010339554784039268 -0.0020626270310543046 -0.0006146277871614164 0.0017947034772754725 -0.004879495822847602 -0.005689110778049779 -0.0021264883071998053 -0.0023309553452168885 -0.0031741554955788138 -0.003721939793041056 0.0010089878766183118 -0.002226994092989794 0.0012000448722411408 0.00044457859100816103 -0.00026292531880753154 0.0013887329541901732 0.002521249476437277 -0.0011305688418884485 0.0067310684170699695 0.002085420777212302 0.0010297718849279045 0.003908100427270172 -0.0005818032223721761 -0.0038895351588256553 0.0014422367474113311 0.0011214411080610958 0.0030789569502028546 0.0007435195939940366 0.0013407656576226857 -0.002300037311197597 0.0003533122958989899 0.0012683743648240948 0.002402355950041876 -0.0006611197179918116 9.559597598373548e-05 0.004288736668881382 -0.0025277124546201923 -0.002322875080317339 -0.0015839176041424292 0.0025998542446771617 0.0010388474627572905 -0.0026139674616470604 -0.005837108659125681 -0.002282964263274587 -0.0030989281270241047 -0.0037887017540799307 0.0026752002994160475 0.002547933085743 0.0008685910055785987 -0.0012128665378459494 -0.0033195715363815966 -0.0007482050548408754 -0.0011292890926199329 -0.00028154005221910934 -0.005531417829806027 -0.0018427404933781834 0.00036760861184249947 0.003983973478377432 -0.0007106625582827607 -0.00018323853268169965 0.0040435599407464 0.0026279456824669753 -0.0007833103171304498 -0.00400572600655004 -0.0035244472787685018 -0.0008257788509576766 -0.0033194988434046254 -0.0009669193430704938 0.0028106956324800573 0.0033162613468997147 0.0014408090575624723 8.355391303857803e-06 -0.00284665010791237 -0.0014212405907118178 -0.0002880319082934341 0.0009917740306791248 -0.0007031873210434187 -0.001694292954397484 -0.0019184411001943666 0.0014399298338795094 0.0026885727631614695 -0.002569069904171228 0.00027622696223324005 -0.0014638064490542927 0.0024105113942211732 -0.0023656772536552666 -0.0008238397338896164 0.002374402209100941 0.0015384441167589345 -0.0010292450665773032 -0.0015907477800772116 -0.0010309475936070812 0.000598558950257345 0.002661980193190265 0.006757770325446739 0.00501842210770114 -9.474304514419437e-05 -0.0041595239460057755 -0.0031593419275077767 0.0036982356573049898 0.005115917800244902 -0.00466129353883613 0.002557481013310724 0.0012598978635224713 -0.003051896974259041 -0.0003834428126935815 0.0008903741381149815 0.0021130324096546678 0.0044182830894529575 0.0007324680119188051 -0.0030928179247563816 -0.0015995239328612787 0.0005502174646227421 0.0016340872993540834 0.0024685606807977292 -0.00012471442269205066 -0.0012909243046030502 -0.0046427224541513165 -0.004366164630336699 -0.0016182393509441074 0.0027435540801205613 0.004636765438285122 0.001601453270556218 -0.000552873192734589 -0.004580035741225196 -0.007512565432116929 0.00010472215188341969 0.0039967040749707425 0.0018117941013512154 0.003472788340434952 0.004608970492735714 -0.00010552705300311814 -0.006295079560483412 -0.0019008379124637335 -0.0029519709726658116 -0.002202863132773525 0.006407909180736356 -0.001587008911963537 0.004671399413281617 -0.0011807944863548249 -0.0018336258056329082 -0.005168391212204946 -0.00208083620100948 -0.002009561438938892 0.001500629877963121 0.004902278338590309 -0.004668258836234664 -0.00026510252947781215 -0.003572398822483298 -0.005598994328466078 0.0005403377871153552 0.0025623804661361093 -0.00013799111812737153 0.0037992923691117187 0.003249525851897694 0.0011751932895927234 0.005067577136920401 0.0063767827792338624 0.002423382643736538 -0.002425451253252679 0.00220471717857624 -0.0024456515141718714 -0.0017796921238206296 0.007139536875331124 -0.0017706385543844818 -0.0012651626930125334 -0.0011338433669502571 -0.0019302756434192451 1.968493861205256e-05 -0.0017684540555452885 0.0004322013909623849 -0.0035467712965905627 0.001948736030900134 -0.0078727650455617 -0.0004706931032829428 0.0018982830008939344 0.002641817013206191 0.00021330251907994034 -0.002336186538309064 -0.00422720538205588 -0.004980816698718678 -0.0043499290598005835 -0.0027186614287482386 0.004550308565664559 -0.0012299144225888232 -0.0015470888641452643 -0.00306510082983016 -0.0003543466286533791 -4.354733390690897e-05 0.003185081235352961 0.005294615475520745 0.00023459215832071647 -0.0028745662570710388 -0.0034249929787342074 -0.003502868340250567 -0.0027608925838206646 -0.002709011392605299 0.0008923629264322916 -0.0024430280108387686 0.0030608366188788357 -4.184488292230029e-06 0.0025853727701772664 -0.0009336612103739172 -0.003191460420080733 0.0013666881164528608 -0.0011883304059352848 -0.0030166592535517144 -0.0027570295911318625 0.00085846602232851 -0.0010993767707336431 -0.00026821987739705935 0.0011535114676957212 -0.003097095288498301 -0.0036927453720859388 -0.0024855428572737853 0.0021157835536841003 0.00431409902171216 -0.004058443848442 -0.003976961104498815 0.001884488238641048 0.0006148066467970167 0.0006712965869632923 -0.0006825543932019365 -0.0024947456186302603 -0.002912816599374318 -0.003192398306768924 -0.0034522658903304057 0.0007633710244846781 0.002955207744547702 -0.002726746816636083 -0.0013261112977447133 0.0011576510228943281 -0.0006972048060438715 -0.0015562247288393126 -0.001662815096020228 0.003695487770136146 -0.0019115639691658214 0.0036633520927477773 0.006197247199189299 -0.0003580141768084108 -0.0031125688910759682 -0.0038945795605998543 0.004052649511501064 0.013652237345099927 0.0024529495368089444 0.0011027552805379776 0.003336444483965784 0.0017107019926945112 -0.00603497455413557 -0.0035344417777236187 -0.005903671973923876 0.00021802479196102417 0.004074151349171489 0.00484979967624526 -0.0011524677018056072 0.0005999463951251434 -0.0012451831023608086 -0.0037542362617776714 -0.003106087649437406 -0.0012367121326751565 -0.0004723029453852126 0.0018597975928713146 -0.005165588334401364 0.0025688942953853073 0.005616093130961323 0.004373659333894802 -6.689726981997598e-05 -0.003360680007570249 3.186576592690803e-06 1.3972202428277982e-05 -0.0015311280685454773 0.006105994838733333 -0.001208448749571655 0.0031072754286859032 0.003727812085233658 0.004087157487922806 0.0012088344782853484 0.0020824249646282707 0.005758783532051746 -8.278377023872875e-05 -0.0012858660587377051 -0.005642615219192838 0.004213344941951852 -0.0034359374147532712 -0.005410122005860823 -0.0002212385318468286 0.0016901173163437909 -0.001663852109256221 -0.002590629716539441 0.00040364267783655735 0.0007029237175784176 0.002295432470372532 -0.005368324008975762 -0.009699589487357779 -0.00469273912217554 -0.0020950966833245916 -0.004290714589412333 -0.0008859597083045163 0.001207201810954103 0.0013799873733020675 0.0008825283047283398 0.0002949221985045754 8.409740764218238e-05 -0.0006387253291415724 0.0019449142000500597 0.002816335710952622 -0.0030731670459102313 0.0011551259446430035 0.0013303930296097394 -0.0012323245634693824 0.0007364568174960342 0.002712157476892601 0.002763118994231668 0.00022487874801334945 0.001816589678587329 -0.0010293169745564754 -0.0014546819959174496 -0.003073934596447634 0.0026396884592883242 -0.0030301391978269083 -0.001293626937721589 0.0017520855844903732 0.004211099934126829 0.0006064581789483785 0.002692317283378949 0.002337948835684445 -0.002068542692783773 0.004292778243876818 -0.004222330377088912 -0.0057819354551343054 -0.0019712379924469907 -0.0011449489937430698 0.0019099551021089392 -1.5011580743087404e-05 0.0032909649355172027 -0.0025923153336072586 -0.0006261504911030031 0.0013483402738756472 0.0013170344692053544 0.00234802053838686 -0.0010851885138967322 -0.0013440822356149983 -0.004209832252873852 -0.0044136205904873015 -0.0009037817387929525 0.005191061517580224 0.0036464794664697524 -0.001810414653675626 -0.0003949847113083148 0.000654566247023919 0.0029540728541528442 0.005666058601764126 0.0038265953877308755 -0.0010088724333407646 0.006900213746590828 0.003121430026574978 -0.004310568703560912 0.00011598877169935224 0.00020946421844309388 -0.0008824330523715556 0.004238863466917993 0.002888002870558164 -0.006630568278317602 -0.0004266520896713926 -0.004941019096585579 -0.0029206625214488724 0.0009485173418050657 0.002751193536401504 -0.0030137257409178463 -0.0004695283831454845 -0.0004921505496371065 -0.00413616962182754 -0.0010157908677659653 -0.001979502485975664 -0.006250800807790432 -0.0004199903265815156 0.0006966529068243281 -0.00013586624703576592 0.003786665796983172 0.0034135782386653245 0.000745632039915886 0.0043658238663885855 -0.0023492616399263585 -0.0033276096598558076 -0.005217270959294224 -0.0014019260969831845 -0.0010407255442285294 -0.0012027475359211476 0.0040270684697199435 -0.0013829493383289045 -0.00021953876483402375 -0.005128770159672849 -0.007461482132710872 -0.005040719697895429 -0.004757893341544569 -0.006623416456123867 3.2450085234243115e-05 0.0055327031934778 -0.001204002203242324 0.001121785019226565 -0.0012430819431406977 -0.00601764517102009 1.035382305904022e-05 0.00010825091177686302 -0.002255505212731039 0.0011904895734298527 0.0017413099658537352 8.208454933450637e-05 0.006271489647504726 0.001194345122528117 -0.0013713025519759448 -0.00198744058268643 0.0011258212094394913 0.0010565775045814558 0.002705290880456346 0.00626338115380541 -0.00730005484239189 0.00013568456156916713 0.0017400547940430214 0.0020449542716255626 -0.0002378824298686968 -0.0016061822161318124 -0.001352506120900738 -0.0012098733087933888 -0.003221146552155125 -0.008548781081643853 -0.0048459980061377125 2.3424182749385728e-05 -0.004852366520154843 0.0011161385061134 0.00460409954578623 0.004363018096417041 -0.0025005565530819046 -0.002310640750053899 -0.0024448902154223674 0.0005859359348781611 -0.004242307332801117 -0.0032314103445942655 -6.68207700037486e-05 -0.0014704099513115855 -0.004063077478506105 0.0036489377838859797 0.007516530589121831 -0.004582242236521644 0.00287073726489384 0.003225392884084505 0.0030016500183718646 -0.00017418825275667166 -0.001982909731716462 -0.0018680408558976575 -0.0010575708820244336 -0.001644517027317743 0.0003099059893227691 0.00033947959617694614 0.0007894117833770191 -0.000967156030520028 -0.00212928087382782 -0.002233175981698496 0.0022836163448327947 0.0040863108629534154 -0.003557990941759512 -0.007434894244487505 -0.0012968326914693442 -0.0001843914325894431 -0.004769899544868394 -0.0014057249000890874 0.0021839671854912705 -0.0006163944710853784 5.842597500886862e-05 -0.0034491826750884438 -0.005824845542700183 -0.0033593833722225007 -0.0005220579146511575 -0.003148590948851998 0.0009730445869143901 0.004050551912346577 0.005622691311055389 -0.0020116788868712863 -3.868574880361712e-05 -0.0004994963998703946 0.0016665756712679646 0.0011943420590943465 -0.00016749239496884047 -0.0012721952617864908 -0.0004191057386258468 0.0019755614590560347 0.003643681846791913 -0.0038734609850350136 0.0025021467504269695 0.00478705722297007 0.0030060083558950904 -0.006123762670191204 -0.0034058895097099904 -0.005367576010383094 0.0012784882772725243 0.006894954191269477 0.0068541371442962205 0.0015716670933587206 0.0030665060674597514 0.0006821116072320501 -0.005717076736594767 -0.004870788512951495 -0.0030153772155949187 0.0019903002467877282 0.0012236424423910611 0.0033620486183389975 -0.00798768774943237 0.0001967553796130212 -9.212380527520538e-05 -0.004386845350467372 0.00038304636917639497 0.0021991807286600835 0.0005522856231637676 0.0015723316706372484 -0.004174361635572872 0.004906881159983396 0.0054797280104275665 -0.003931423579760175 -0.006421480254664041 0.0001461024650236758 0.0022739517683345507 -0.0032942758558562315 9.062817257766906e-05 0.0029010397969617156 -0.001560389689457953 0.0069123108181853845 -0.0011829708024897255 -0.0038501689451870187 0.0026104729012425033 0.00471619202450857 0.0023011371210118706 0.00316591881385832 0.005534796952818141 -0.0039771451507139505 -0.000365632862198453 0.0006474868476990881 0.0020139335850102645 0.0017530586144735624 0.004527288594894184 0.0030241026090849187 0.0030351662846616694 -0.0003104139162967507 0.0010303496499021493 0.004735762952073212 -0.004128482242373797 -0.003061139544498089 0.002976999987373618 -0.0011216515414998421 -0.0038861823629104315 -0.002964009658161429 -0.0006019324079586721 0.0006497349330504472 0.00653222150726719 -0.0037779362658321436 -0.0058997420130992755 -0.00024610111335892 0.0007512108077379415 0.00119707066008518 0.000546647183574181 0.006124206924138032 -0.00166593302481529 0.004118921877307023 -0.0015417134591154218 -0.0016057558392342343 0.0013998483877670153 0.004185400423172888 0.0018956125136192269 0.0031277443919466054 0.003029432796650822 0.0006399332904757653 0.0056589131000443355 -0.002187893854857009 0.0006375649397876456 0.002657569316221645 0.00020878576277540186 1.6018706838274114e-05 0.0027622027033675257 0.0017842091545761062 -0.0026278500987238487 -0.0018059887154562228 -0.0033802136217621973 -0.0030998355367389935 -0.002780547021335369 -0.0007824226017274672 0.0017893389255803408 -0.00033287178145770024 -0.0026037485310102986 -0.00716133121177229 -0.0007809900933330974 -0.004269200020244819 -0.00265184794393264 0.0013746274332160251 0.0025220595959803125 -0.002591676321666526 -0.001125056234960673 -0.00226290300239794 -0.0005390832306763571 0.004963310350903051 0.0010843502980073059 -0.004401132966667179 0.0018895253332626124 0.000642649830366918 -5.540448313458116e-05 0.00436538180466791 0.003342004523625195 -0.0008499864110946056 0.00048723416955188324 -0.0002221293531250122 0.004200076864488158 0.0004403479024035616 -0.001002039096153569 -0.0014085057226588089 0.0024135991450475736 -0.002533886256818062 -0.0017181865884067086 0.005947687407014128 -0.005561655143494432 -0.0019365065482846611 0.0013210060605082991 -0.0007328112035232663 -0.0008377377289460182 0.002439902346722921 -0.0003771026778387137 -0.0005380443028643999 0.001691442641561251 -0.0013158511175088655 -0.006542910212398277 0.0020417512553236794 0.0005943391805588018 -0.0016313133908667362 0.0025101323372820742 0.0027307551985156493 0.0001111733118185418 0.0005793619339957845 -0.0028436593922364973 -0.0034649133992726046 -0.003141968295408283 -0.004315825082753102 -0.00265779760406415 0.0028802355166186095 0.006906149558914681 0.0004527429079533346 0.0038050445097700942 -0.0033791362102508476 0.0032850051765653367 -0.002254924354806106 -0.0062050555425855825 -0.00133063465784174 0.003112704534423718 0.0005103369411704204 -0.0016064844514640936 -0.0029252539247863084 -0.004947532061562463 -0.0020390529489281136 -0.0012672814317800055 -0.0015248504241581668 -0.005399134959342431 -0.001953658160259644 -0.0023168468049162756 -0.0013002032891502428 -0.0001257480963992553 -0.0033795223182144243 -0.0027198100299799712 -0.0009236262981066575 -0.002121795958247515 -0.0030901957218748967 0.003839408610703764 0.007348517507881248 -0.004737900337773814 -0.0021475498792075734 3.015718294067593e-06 -0.003984739240838304 0.0011871395521947492 0.004408274174079689 0.004464314930826741 -0.001926794787111089 -0.0004518660757887007 -0.005842137076369115 -0.003377030769619724 -0.001222716002512399 0.0037366787742727737 0.00019573380725769677 -0.002435431128601262 0.00016760502903500208 -0.003126338612214123 -0.0008981384326271711 0.0033443610627856275 0.0026839589757829685 -0.004213624647324002 0.004878071846627676 0.003343939465139616 -0.0021862718773457378 -0.00023570498477607665 0.004836911505336909 0.0035863565220656075 -0.0028006433567521537 -0.0014736633334591653 0.00017825508464768442 -0.002983185464021877 0.0024623069402253017 0.005999780979853224 0.007004825679196659 -0.0006797566614164087 0.0035556790741866425 -0.006815271296099716 0.00024789426677820307 -0.003585702113548968 -0.008253322830665722 -0.00082977040036163 0.002572283534691924 -0.0013714504862793301 -0.0010861749689833019 -0.004279007143532659 -0.0009848421463291169 -0.0019927031698625005 -0.002579535812234601 0.0006273441156012512 0.00022514948063549298 -0.00018436446324110174 -0.0019063052877924818 0.002134646772729678 0.00255634307172046 -0.005732686858892625 -0.001994000340784185 -0.002991250982720974 0.004191420330333293 0.0005189149693882948 -0.002179917059933311 0.002824636483388235 -0.001653502071674821 -0.0017090445246096726 -0.006381919727902391 0.0020553495735699543 0.0009242177159569339 -0.0043010595728982404 0.0017831939988393081 0.00298347931727412 0.0008708236449756809 0.002495930969090199 -0.0028381663069257535 0.00017984543563046148 0.0032311571814806145 0.0006216352284768092 -0.007664502879882729 -0.003255154346814077 -0.0019965575525897404 0.0016847765518354263 -0.00028810207724880505 0.002554812472605771 0.0011230733617627448 0.006759549512352895 0.005144434262334676 0.0005431755214025379 -0.004793945639898371 -0.0030950475373782895 0.0035015878615059027 -0.000809651932262885 0.010741680874722041 -0.0006569873439808916 0.0006329186819474275 -0.0010693808967123526 -0.0009730474275814833 0.0003631526315158402 0.00047230463913177186 -0.003345312114745637 0.0011429058769778842 0.0018657207886328847 -0.0011973945772473247 0.00442528100069618 -0.005126604414557912 -0.004260916723370239 0.0032989500211807097 -0.001669487643114977 -0.005642208916906423 -0.004307374374804911 -0.0026525489929119235 -0.0034439815921589764 0.0003878009844583043 0.0007023478900954649 0.0017697138826024844 0.0015507099082048355 0.004860256287538973 0.0021373035598889582 0.0009148131038819525 -0.0008975541599239197 -0.0016074084855514875 0.005185792441217488 0.003906905881725966 0.0009690711892215827 0.0006560290693549421 0.0010678304720777181 0.0017100360770323374 0.0059053022613594465 0.0023823873587915435 0.002059900522562372 0.0023636722440744957 -0.0009633603479633439 0.0011934330100823382 -0.0008877510157892228 -0.0007623310132546649 -0.004302370856785171 0.0025462218994811176 0.004174661166437115 -0.0028365745148182706 -0.002717868752521796 -0.0064115287880966015 -0.004056776381617925 0.00023068541849439035 0.002142960652139411 0.000813494059115498 -0.00319195432856277 -0.003464701927905184 -0.0004900638666358638 0.00592735100846832 -0.002599817832637409 -0.00013144169175083691 0.00425112953415236 -0.0008590411937374135 -0.0016449992674162947 0.0031666428555403104 0.000641032255533208 0.0015445994330124755 0.006189616974452934 -0.0008255508049989471 -0.001728753243856949 -0.0013447107290587726 0.003288179366053204 -0.004815184140604298 -0.005194260257797423 -0.0031238261301720447 -0.0033433122866568833 -0.0014434642011141778 0.0005782484938779991 -0.0007434564178110539 -0.0009231371642452081 0.0005807052594141328 0.002214311385105348 0.002031829072324988 -0.002086126715183347 -0.002393655527790693 0.005413527763403462 -0.004120556196111414 -0.0007563447048217307 0.0038279388637721145 0.00039352739303056893 -0.003152158991914046 0.00042707806503770033 -0.00023340353797233145 0.0008015871330502737 -1.271740030434968e-05 0.0015118202689498338 0.0025324425057363723 0.0031752546728697345 0.004114765882759642 0.0026534002872094747 0.0037602242869665204 0.0026090955359761403 -0.004469300678494721 0.0003152469151298471 -0.002020601829624508 0.002742340339232649 0.002259657200453072 0.0037826023371230633 0.00576571654373613 -0.0074795861282626235 -0.003620722452585231 -0.0012916094394856395 0.006785941307997735 -0.0006190124677547945 -0.0018641155373971775 -0.0034175742294756495 0.0025173938909478707 -0.0034368353743648426 -0.0030892829100446465 -0.002905367197288393 -0.00028509864538759006 -0.00228758073643677 -0.003615176452671998 -0.0014637463009596148 0.00015340496797446607 0.0005251111759543623 -0.002455342538928165 -0.0007708852166327387 -0.0011695631941334116 0.00034728589162760304 0.004070630445130893 -0.0026090181801293904 0.0025650328579767266 -0.0025392543985678882 -0.006625146390611037 -0.001621555826906153 0.003614104716993166 0.0030419007675945102 0.004179925872010413 0.007983886931271356 -0.002390086129968774 0.0017421302068024054 -0.003488184876194903 -0.0011801250235176594 -0.003693457029541579 -0.00015857314075327382 0.003152010256218089 -0.0042608059592114216 -0.003857024968240903 -0.007017985965156673 -0.0006789805617825883 -0.0008542312968126048 0.0009015768955562334 0.0017897257823060182 -0.0072749283257076474 -0.003999940521478111 0.0015992526400968458 0.001211992440784646 -0.004811585930412442 0.0017332206478662703 -0.0005467730839780727 -0.005018948858980829 -0.002232485613611657 0.003936078866809671 0.005619903210526401 -0.006390961440428064 -0.004463555403804448 -0.002858548557209628 0.002985098657700462 -0.0012769417888715405 -0.0032021221218646464 0.0006518895065416747 -0.00298385759156486 -0.001792952286667165 0.0009338005396692276 -0.00014342247737822008 -0.006697194583506295 -0.004481093760197033 -0.0067433589591841805 -0.00466466375458148 -0.003034536289676943 0.0007588515826457779 0.0006548762032057958 0.004494469594711869 0.007156442824700526 -0.004458489820956506 0.00040143082378327026 -0.0023191944801581664 0.00010148893312368538 -0.002658132232229433 0.00044378110381285157 0.0021658630742823286 -0.0057857551342856426 -0.002369474828139579 -0.0023490710212095926 0.00351556054061708 0.0006100528218519768 -0.0014581531396574132 0.004665928113148773 0.00047977227622128933 -0.0009273016440746852 -0.0015152635373021667 0.0004695349297876575 -0.0007486786808934833 0.0016185432377622238 0.002161894267584336 -0.00037076487408300545 -0.0028531031466280748 -0.00030761745694360247 0.0002738198615882241 -0.0028520363229055804 0.0014830548146633757 -0.001270899554737254 -0.008199002859332472 -0.005986333720975853 -0.006781938385820861 -0.0034745394718747893 -0.0007805258451288033 0.0034885311433600305 0.0018956033410119089 0.00010340210427105555 -0.009102404171453004 -0.004444251192149471 -0.005972785910392457 -0.0033262734246328677 -0.002511336542856997 0.0014346518976550747 0.0017952191689455557 -0.0007541349224581185 0.001320603114188437 7.304862178516009e-05 0.00038133584087473774 0.0004882844516781449 -0.0007062161628465482 -0.004735399950041538 -0.0008868247121602169 -0.00022756311929367034 -0.0026431859369611295 0.0031855149648040417 0.003417921619047776 -0.0021166927113187356 -0.005064840712125781 -0.0031727110750778727 0.0019339940151999293 -0.0017178563699531916 0.007742961900955246 0.0009683237764010343 0.008422351809524418 0.006840039557437347 -0.0018831179436417924 -0.005048880885505272 -0.0031578301597564857 0.0005972289654442484 -0.0045329467423392885 0.0027627453672550207 -0.002482032305725046 0.0015931791739668415 0.0011019663503818266 -0.005466061471485255 -0.0041329829320149525 -0.007533567573247592 -0.005360386065431237 -0.0049774173233190725 0.0005722692852932145 -0.0014682676501046818 3.304745251524089e-05 -0.0028448055181221647 -0.0011866377956217416 -0.003179148895248131 -0.002341997319014906 -0.005382779504023759 -0.002270719809012694 -0.0002521480118889939 -0.004185895456907905 0.00326431571665886 0.0029212237612626164 0.00011600285868243864 -0.0002851581331355247 -0.0007853566414610085 1.048527514730413e-05 0.0038273583355755533 -0.0002845204515164822 0.0038432853722789157 0.0012733056886580474 0.003840087590702498 0.005419862166158243 0.0025462774712415245 -0.0004954835582667031 0.0010400869817091215 -0.0006727168493436156 0.003278346290863083 0.006686084892474449 0.0049682119136037345 -0.0029189797046834678 -0.003442376031668731 0.0016653331968283186 0.0023462577932583176 -0.002737976982415588 0.0004761285712239411 0.006565420940388611 -0.005187455519579357 -0.0016279969813287184 0.0005369711683480832 -0.0009962318469275723 -0.001303552745984299 -0.0005705979968730773 0.00025061787618757417 -0.0007229993782292053 -0.00520836296907699 0.0012225697362140565 0.0045117352883549825 5.635741539753828e-05 -0.000954944190707525 -0.0030541935449091475 0.003688208555383811 -0.0029604949179950894 -0.0035063312819483875 -0.0020325617634940054 -0.001207130608197347 0.0012220329101689735 -0.0013981608058290906 0.001770017859311449 0.0012395869492611183 0.0038768701901447846 0.0009845411254945716 -0.008380345138483573 -0.0020977210243062565 0.00354883398593541 -0.0026486529257772635 0.002424516578356067 0.005699853789258057 0.002406071743311975 -0.0002511006896649609 0.0029164001524987 -0.002115196799114581 0.0012838312929712749 -0.0014285857247633307 0.004852987250895532 -0.00040542230310253245 -0.0015800892728606976 -0.005059098044227851 0.001885217592894492 -0.005262746438481561 -0.005383057472077406 -0.0026872041874713916 -0.0016827651712051995 -3.364145171559471e-05 -0.0015095364516779157 0.0020664788845608374 -0.0008477363403022222 0.0022444890466244544 0.0056029544481019326 -0.005477874729203529 -0.001504468654907901 -0.0024531202922999347 0.0003080454411838526 0.002943372025956417 0.005591918150966821 0.004524335715344037 0.0030423595663773826 0.0018508932859581178 0.0020497466467894712 0.007552799641827507 -0.0016561234618102162 0.0049461585418302265 -9.569505712068145e-05 0.00024490545962006153 -0.0008357288277382608 0.0021418987640083507 0.00035347603750511016 -0.007127332028474319 -0.000868698676677628 -0.005592293029805639 -0.0026465768656933294 -0.0037284384697164417 0.002403065628685094 -0.0005116821164367184 0.0016769585783573645 0.0029914154022902747 -0.00643460121358117 -0.004227939142059816 0.0016685821312666911 0.006468398233072601 -0.0011267266376503236 0.002764099319994995 -0.002799321638326307 -0.001327223595170527 -0.002516974346012067 -0.00014848178275749557 0.002822763718885114 0.006033419598339982 0.002198535368245184 -0.0016996837064040906 -0.00043709562243772216 7.593188050284747e-05 0.001945508701302938 -0.0018354229097652449 0.003059612558173167 0.0034068604435341437 -0.006157500703843646 -0.0034600665829011296 -0.0016559477501072069 0.002967321974530444 0.0018112709830964235 2.0904373785359518e-05 7.146154881034938e-05 0.0034685586021344765 0.0036959953929745376 0.0007798844038917622 0.005152704012150095 -0.004182520543973934 -0.0007685110110000346 -0.0035276271317878764 -0.0012386886531398126 -0.002417620723248003 0.00030223222338429917 0.000982177870935713 -0.002484202239673067 -0.002653422638262382 -0.007937968999074395 -0.005980919007805254 -0.008271664635166147 -0.0069343867004551625 -0.006373042812227623 -0.002047434243361023 -0.0033037284687783895 0.002733234503871128 0.00026527980807817994 -0.004661612840031938 -0.004541860148636682 -0.01073445191452458 -0.010315560204301806 -0.0048609747298918185 -0.00015088134240311398 0.007168566473588888 0.004183584795275127 0.00044966302165582497 -0.003803135650487758 -0.0029487971429459 -0.0023951842412320143 0.0003783370735992847 -0.0026666500032481006 0.0026098645960812056 0.0034568566870392227 -0.00013218201073978247 -0.0006293220875674346 -0.00694812900234256 -0.0039455729649479875 -0.006289058852204074 -0.004915929381199925 -0.004274436727346324 -0.002150053069436021 -0.0016049850977911206 -0.004630942668296315 0.002284877117944465 -0.0010201481572040235 -0.0075607197188936204 -0.006495358197262348 -0.008958052696384528 -0.005497862115556632 -0.004878845726983193 -0.0006341643670163132 0.0021796222988444084 0.007514660366399274 0.005828287491736925 -0.003828972698528475 -0.006249363253594524 -0.0017197137210656942 -0.003804397109290651 -0.0017167193503552247 -0.000737491208815143 0.004532397954800857 0.003165056185174102 -0.0011833652132191054 -0.002095600223577336 -0.007201100665787665 -0.006255131803590737 -0.0051722791756581244 0.0004731970448897584 0.008482665105055874 -0.0008280936963429563 0.0035597856821187003 -0.00015765039865210217 -0.005740120454185615 -0.004419051997065249 -0.00723244530397458 -0.004570343810540697 -0.0038021182364738086 0.001295708143477158 -0.0011684567461711268 0.005017322672950949 0.0025346341814280696 -0.003307573916710839 -0.005828985254066453 -0.0036686648076893736 0.0006194489193294597 -0.004013926303046612 0.0020566755447932743 0.0012446144567816655 0.002677294512820007 0.00741317618403043 -0.004953683429211679 -0.0023754996097236514 -0.0025103574966090962 0.00015917745991859785 4.9005987097643555e-05 -0.0012993070826242872 0.003033021194827144 0.008111181852781067 0.007508695388873227 -0.0037038685275798734 -0.0048275161457583746 -0.0009012919773621174 -0.00322265354091808 -0.0018602941512365523 0.0017681119285116258 0.00365288153870156 0.0006213453852240172 -0.005332778644143261 -0.008560617831961404 -0.004381348752037072 -0.0035321159672847646 -0.005713063952629512 -0.0043221433889979975 0.0012598472085259729 0.0004347129205884519 -0.001020863362880996 -0.00043068478132143704 0.0018698333092081628 -0.0007984163727077003 -0.0031977613790561466 -0.0017647473152192375 -0.004043454259312146 -0.0008809428662123758 -0.0015218230881295528 0.004210734056072 0.0017583356034600436 -0.002433518813305303 -0.0016269829798679846 0.00031214141973695146 0.002015005782131605 0.0024898057491881905 0.004748115560703285 -0.00360963633596789 0.0012568629163804195 -0.004890498761949795 -0.005617848817431419 0.0026848725721482637 0.00012311764469035108 0.0012513893852443454 -0.0019315857538738687 -0.0005830070913279724 0.00014582951710807418 -0.0014330381447977846 0.0009068244411545248 0.0031110778932593006 0.0007944801643419977 -0.0009450867157335386 8.196849375869043e-05 -0.005586807712080006 -0.0030946514339883404 -0.001353499566822823 0.005225013294293783 -0.0028544182921050503 -0.0007063150229127547 -0.0023930845110348886 0.0005967398961716337 0.0018636115450882194 -0.006461797881404329 -0.002116832696689583 0.0008091846757947563 0.0001890093684832692 0.0012610478462722207 -0.003893900885015067 0.0033702309753632217 -0.0003395208860801012 -0.00036712562064988836 -0.0032690926525864154 0.0020654550301022943 -0.0030476469856418535 0.0024614599089931625 0.001043349364730511 -0.0017166998407662885 -0.002188123742274117 0.0014502204592348334 0.0036827874018694165 0.002450406192126208 0.0028013999663381666 -0.002580334819295833 0.003989905794194842 -0.0034820674443069035 -0.0037544078352440787 -0.0056437608286899225 -0.0018198239827296222 0.0001808299078742759 -0.007612789850508564 -0.002878173132568335 -0.005213087541336209 -0.002099111751975969 0.0015913474436109736 0.0035504183727798956 0.0009619773561408494 -0.0006116721516951472 -0.0007789139057688472 -0.0023438791652646675 -0.0008028713800325164 0.005723559656259933 0.002771300490977619 -0.0007689830410739997 0.00029675204303867387 0.0011934879316585095 -0.0003512372472266866 -0.0005716624262971103 0.0005320335318301766 0.0018114289672964206 0.0020637850284082257 -0.0007862707596948623 -0.0017786256879369926 -0.004202206559477721 0.000332275868244472 -0.002758732082642129 -0.00038384132433042547 -0.0009517725245291397 0.0035369560009533333 -0.00571363477046527 -0.0025820055418009787 -0.0007806669334313798 0.0021178208094634727 -0.0015306201741068358 -0.0031736926963346675 -0.0009938038110236852 0.0011243939536781896 0.0007814412978344074 0.00476817338566671 -0.00040594998173913753 -0.004218208722074903 7.240398813936352e-05 -0.0007773891989406671 0.001188578533671155 -0.003157127699233888 0.002835045076655622 0.002521274485288539 0.0001733502891259145 0.0005320426949014021 -0.005971452762678827 -0.007333019005950944 3.0295384059942526e-06 -0.0019202193433530898 -0.0009627039957774496 -0.0037428308798713216 0.004481224650834782 0.0042015721278787325 0.002271123529628125 -0.0020872388624305458 -0.0002970416109819896 0.0004570886523686367 -0.0020634050884795136 -0.002952023600220311 -0.0013736609570692104 0.000464569519368334 0.00555163294688428 0.0008826784929944488 -0.0030880799519758793 -0.0016073409696261301 -0.00160570169324803 0.0011692680491407427 -0.0021169747147346332 0.004579082137825577 0.0066737993187946446 0.001938392608629547 0.0011343796870681548 -0.0048411360723969055 -0.007216605674714241 -0.0102800023501938 -0.009755399742754533 -0.005777799366183689 -0.0008394890517560376 0.006900710273043848 0.0034366072725858883 0.002200143909195984 -0.005330179886446848 -0.0033165961442746285 -0.008018056698262896 -0.004492168538383526 -0.005141604911368519 -0.0032270522953026315 0.004056827800032671 0.0002202134852078085 0.0005222080908490683 -0.0067769543699494365 -0.006945810757606664 -0.0004283201502442669 -0.0035754578494992992 -0.003218590413218908 -0.002763533300962444 0.0060654909197599164 0.0029238573489636043 0.0022334826499543813 -0.003808362725746452 -0.002583625518467946 -0.005518182311164377 -0.005590950411885695 -0.008101974096296566 -0.0038608336812451538 0.006034526043235894 -0.00031784648631225006 0.00624403401703888 0.003982657160648913 -0.004484222892141161 -0.006830679955890147 -0.0008748906582556038 -0.0038494736407376226 -0.005247677976763752 -0.0039085134781045375 -0.0007201959244852792 0.006928067856164744 -0.0007845105675189783 -0.005947206763467094 -0.003428139937670966 0.00010273979254286782 -0.0021846227903059797 -0.007159571798927095 -0.0036922391745690232 0.005103569786310282 0.003880762025420082 -0.007456434154210367 -0.0038549727520963244 -0.005413473966079381 -0.00275668785399464 -0.005844922202594152 -0.0018033424116540657 0.00507844800127469 0.0030363731631153964 0.006988240833523096 0.0063460007817898074 -0.003692356070247943 -0.004861577237148173 0.00031191187479518426 -0.0008176445434032652 -0.0019334107172526548 0.0024877310289069987 0.0016327290467656507 0.0018547856636875804 0.0056976283835828605 -0.0043353827633428425 -0.000782514295743553 -0.001844316670382698 -0.0014133169797983303 -0.0016380904944552199 -0.0022980789373200335 -0.0021501593251703273 0.0010358613563527445 0.0013124836063205865 0.0009869753814868043 -0.0007190453937474901 -0.004842680183984671 -0.003954344712415029 0.0005516877164267626 -0.0036007518330128723 0.0009275149532224538 0.00897629299567504 0.00028981498440140214 -0.003945077768139836 -0.003882746538482396 -0.001965853390089599 -0.000467118742337439 -0.0023517459712640043 0.0007306664314462006 -0.005998026334863144 -0.0020175928037309394 -0.006330006745299171 -0.006830609713171991 -2.5669754122580557e-06 -0.002398147285134741 -0.0022737304402439254 -0.004154866871246454 -0.0022463159246550366 -0.001003630407902713 0.0035380163699523207 0.0013514222811306046 -0.004306322684992596 -0.0030401325514457936 -0.0010983589453328012 0.0008295744534460795 0.0010264543845212293 0.0023204208012501584 0.0007049538306153437 0.0013541101990960998 0.001467337408301416 -0.000715821508901556 -0.0046577846930236436 -0.0024879714274263463 0.0032147590285030313 -0.0011314607663447905 -0.0020089733193946776 0.004059581068770567 0.004849680531339969 -0.0058133422380987985 -0.008597540900958987 -0.0067330210045777345 -0.003707866394590294 -0.002103818561333188 0.002884611436807264 0.00640441117400695 -0.0033676279613421805 0.0008724807049491706 4.272559659556642e-05 -0.005522088059501402 -0.005504803369728763 -0.0022216490883915966 0.0020450836321555897 -0.0006687302681782865 -6.858864451867555e-05 -0.0010066021420232338 -0.00148667315256054 -0.0009022043482156633 -0.007479425310072898 -0.0024105662036526757 -0.0034203932413865833 -0.00113457594058855 -0.004846116946606084 -4.105699378124413e-05 -0.0018695281551614098 -0.002044716889233796 0.0032520487352134917 0.0001681338118462032 0.0009375196933406278 0.0008466727260950377 0.001517959374873211 -0.0014980475895713234 -0.006383126674299049 -0.00237909560374282 -0.002579138104195705 -0.0027892057448306246 -0.0019097858657768708 -0.0029346796938299943 -0.0005998121478781463 0.005887538665117543 -0.002203194227984432 -0.0052562524740881 -0.00015412149805569704 -0.0030632509030966222 -0.0037892757825127945 -0.00683944604944936 -0.0016221898807149443 -0.0036399930761619958 0.0009649515938376812 -0.00158505617308016 0.0014413053448108898 0.0009996555827711624 -0.0009432825208022337 -0.003837090451730911 -0.0012743240917750453 -0.0005980129939906346 -0.0023442518476912743 -0.0014620819068123705 -0.0014493470405580388 -0.0010332939752465036 0.001175658731218418 0.004188196575173393 0.006631676135715183 0.004908108880714362 -0.00042974675044865477 -0.001586837631627473 0.0030652055552612377 0.0038733328724101877 -0.0012893477977189611 -0.00045480672838735193 -0.0015081703429904326 0.002216727124157312 -0.0011381108536321067 -0.0009281203325459536 -0.0007969165089002484 0.0021855856313203084 0.00023168557945944435 -0.005050089019554436 0.0015970613936364178 -5.690843346102818e-05 -0.003493652598884859 -0.00010784933620212147 0.001513420502231166 -0.002050998297864151 -0.003550455374101132 -0.0023384811859595827 -0.0004282083165684826 -0.00035482947709359914 0.000711192043327756 -0.005337636116846648 -0.006735668945937716 0.0005660464929087923 -0.0010697120715032044 -0.0002672510963438759 -0.0031403713655246183 0.004251747333619257 -0.001472903420526178 0.008452456046179769 0.0037174356191002626 0.0026795939675585403 -0.0017183712028713146 -0.0021531816771573156 0.008410054774483599 0.004966959521144231 0.0016553752597457388 0.0012434443273979048 0.00344680940038173 0.0053082961664881806 0.0036602730773103898 -0.0016459937455140545 -0.0025557421076571243 0.002692259391117369 0.00265204045008992 -0.003088770172695794 -0.0011834970733737233 0.001243979641983279 -0.005520451790783895 -0.006545058866878411 0.0008600211162633561 -0.002556504077136484 -0.0023805832625670427 -0.002694960522771519 0.004738150714585666 0.004640183168761193 0.0012038799084049163 -0.005304860174324498 -0.003780787902668709 -0.007550319282258715 -0.004538342849137431 -0.003803024931656647 -0.0016600308368286685 0.004196984986447615 0.00413803717363843 0.008841315117323228 0.0004962782645471556 0.003320821964964654 -0.007204501652595504 -0.008523902929179821 0.0035957817672470738 0.0033689348702576082 0.002186566207048657 -0.0005636489485572071 0.008812769211035552 0.005384908936207273 0.005976308201002643 -0.0012273433167771391 -0.002811657904527093 0.008008152449660157 0.00603932187997521 0.0038195722356965207 0.004855941864424763 0.0009870243022266146 -0.008931014064039835 -0.005516604418779799 -0.006675749705081202 -0.003937799780233 -0.004767994706611628 -0.0009003970744984339 0.004410233808655604 -0.0017193289801328718 0.005334989815323897 -0.0006289509984472016 -0.007854435505673454 -0.005624166717456903 -0.0018345372376021955 -0.0035863900383379774 -0.009218333499524662 -0.006232448454581102 0.006193002721833421 0.004172735434626374 0.0015356653639609864 0.007364076738087181 -0.0009118388963240711 -0.003363909093075086 0.00041153587231531805 0.0024172691583173897 0.0027767606206921197 0.002288515723989754 0.005820083058073077 -0.0011937205294692923 0.0034619158181468817 -0.003992382862892187 -0.00594596265058049 0.004160217247416021 0.003933489701219512 0.001197777120649578 0.0006109071823541285 0.008423597452552103 0.001879349466855742 -0.0033994938204697403 -0.002839775609833006 -0.0006222331837668463 -0.0002119270211123294 -0.002451988308577932 0.00028106653684475876 -0.0006269455284525302 0.0020625161270142467 0.0013958676012761804 0.00013184158444177617 -0.00174513795290212 -0.005302316973514054 -0.004888936139941946 0.0006853663784152882 -0.0022977272993691374 0.0030597214427958382 0.003598954315366566 0.004085614533599464 0.0009639588686436358 -0.005479587640222972 -0.003592208350391981 -0.0008013397306703176 0.002162034369954595 -0.00103514252778919 0.007223223542163333 0.004388283135959046 0.0006105353875535253 0.004933890335299627 -0.00033195429282538837 -0.0022221325961596437 -0.0003639115960651216 0.0036990405032042437 0.004993383942820027 0.004977119402795995 0.0052622707799571955 -0.005717234778882218 -0.009148759544414685 -0.0033534225236434667 -0.002007137816419318 -0.0033561300100959754 0.002604224875921076 0.0052236345920929975 -0.0007974027897112342 -0.0005601396395141062 0.0007990474769070986 -0.000819494959942684 -0.0025143351508091602 0.0003088774740945582 0.004436225781309697 0.0007657113674774339 -0.0010732771012246353 -0.012826175113789534 0.015842234358753322 0.026582362014733858 0.012372684239833443 -0.002278667111685574 0.0019610208607686356 0.006093882584065188 -0.007392597668230148 -0.02294156871215263 -0.015525976163970674 -0.024522818803290405 -0.027372996389944393 -0.015888477119317984 0.022032263348795832 0.022434677256355468 -0.003971012001293142 -0.01472831229905302 -0.016459924665642424 -0.0027494916112511198 -0.0033021193097929964 -0.002262296945859608 -0.003253379880392578 -0.0028716465443684946 6.1957273954138054e-06 0.003652517183660277 -0.001403649676927524 -0.002353583567899974 -0.003316181318905238 -0.004469880799102058 0.0011699249519016835 -0.0028010973113028344 -0.0006643127484530073 0.0006731290081127849 -0.0014488216026602209 -0.0008879276830750325 -0.008042731734523028 0.013590036595718951 0.01730243506131732 0.01396985430610112 -0.0023999758055927504 -0.009248250203634479 -0.003937830706062017 -0.00913223722224711 0.018201467949242458 0.02873559862351994 -0.014531800128359603 0.010984587461790731 0.026105917203348723 0.0109099950199007 -0.007372681618202594 -0.0028959594065816516 0.005821639837219712 -0.008755102496430417 -0.02272518322735928 -0.003534683374609348 -0.004500071529311575 -7.271423631331117e-05 -0.005261351468995865 -0.002935505316686627 -0.00016529836582065185 -0.0017854487062458858 -0.0015014123240054643 -0.007731083656156315 -0.005176834421913113 -0.0008637383902485316 0.003374173892679893 0.00017628608015814997 -0.0008441336010650689 -0.00254465053444472 -0.000838003297436665 0.002399035331487067 -0.003741794779054932 -0.013093960611189018 -0.009888683449735536 -0.005795043254341818 -0.0035006733911434724 0.005040336164018002 0.007264803038357463 -0.005474062450481609 -0.010951544894798333 -0.014197247730520057 0.011967746729019407 0.014681588856786444 0.012236562719690317 -0.0017300482586582486 -0.009597297288295031 -0.004838335509141176 -0.008178640541722794 0.018065947338131456 0.026537316247283036 -0.0030622491236695585 0.002403614388827454 0.005613731902223971 0.002058147472876528 3.1933798449200573e-06 -0.0003331915566837136 0.0005768689149907915 0.0031727731947553237 -0.0014271573032647925 -0.005896151852889757 0.004821911246126736 0.0007180882970339789 0.0009062588693689091 0.0019944316522583477 0.0008106025054895314 0.006361428408484782 0.005445883325462779 0.0015142712356096093 -0.010997007136478203 -0.009023720811710297 -0.003411544513823462 0.0020443534425577917 0.015049097168767957 0.014129288869806161 -0.003946483373067094 -0.004789699825698767 -0.011667367234924071 -0.011254046822409366 -0.005079666168752351 -0.003356491605222051 -0.0013035907432635472 0.008238995421285584 0.01064368621920799 -0.003854470069851558 -0.008971875116351169 -0.011571798799944154 -0.005507394944957781 0.0057896011304012 0.0034394398759621816 0.0036601574808722706 0.0027366814315662002 0.0007925728979324394 0.007420136668099101 0.006703064900856588 0.0028867212531701212 0.0014270758914599752 0.0072213672853909784 0.0009712271728913236 0.0024337430291028472 -0.0006053429999295203 -0.00010795370541698797 0.0053640761002738445 0.0054180840820238305 0.0016062258402596997 -0.015263836012511805 -0.02152685403890072 -0.02277973692837315 -0.007402910866873439 0.014491996517759904 0.02102618794974664 0.00019917469414351802 -0.00876041609511926 -0.015490608277551826 -0.011613751789168479 -0.01029122346344454 -0.003742610791844878 0.0007522545947747717 0.015672771089834857 0.01393539744676687 -0.0038845645664074904 -0.004173575869083606 -0.011556185841328693 0.0016912448541018515 0.00786426813101338 0.0014023752400222176 0.0031150561008220904 1.4543794760651548e-05 -0.0003502274753621869 0.006444562178451572 0.006767623857706896 0.0025839923094991887 0.005454579937375102 0.00545108605045837 0.0029515002010669527 0.00677668848385424 0.0015050870134456162 -0.0007607018512815601 0.0019394287878311306 0.005324687227576881 0.0034140022572601895 -0.01417848786253583 0.006918549516109782 0.010075286311186635 -0.004652352020011535 0.008337491988811608 0.0073573030885072735 0.013467627568174894 -0.013293627768890499 -0.02592085759483492 -0.015680782088807146 -0.02325228319433891 -0.023914554223087272 -0.007826643915766273 0.014151275201087865 0.020704618899725233 -0.0013325033610631402 -0.010809152490523949 -0.015016735378647594 0.007508561057116189 0.006851794010964331 0.004294811927665547 0.0077847784242430895 0.0038908577280098965 0.0016116199387972753 0.0027988585486007312 0.00659852079172718 0.005851242985737327 0.007164252665274964 0.006906302846623716 0.007214439160869883 0.003098453777299187 -0.0007318594135304096 0.0009842659192800408 0.0009700949343897985 0.00557097736722545 0.003028608313353171 -0.018949763551981656 0.0006386068537433499 0.024322065660033806 0.037805924031957656 0.015564216036198382 0.011639731607823792 0.0007930354355309657 -0.021216714960188683 -0.03586993971780186 -0.01649071026768992 0.006488678004137829 0.014642440630074057 -0.0003063413408529732 0.01668500638937711 0.015000931154321885 0.01578119648610474 -0.008170285728681843 -0.02594454438226292 -0.00733737